FANN_FLO_2.1
num_layers=3
learning_rate=0.700000
connection_rate=1.000000
network_type=0
learning_momentum=0.000000
training_algorithm=2
train_error_function=1
train_stop_function=0
cascade_output_change_fraction=0.010000
quickprop_decay=-0.000100
quickprop_mu=1.750000
rprop_increase_factor=1.200000
rprop_decrease_factor=0.500000
rprop_delta_min=0.000000
rprop_delta_max=50.000000
rprop_delta_zero=0.100000
cascade_output_stagnation_epochs=12
cascade_candidate_change_fraction=0.010000
cascade_candidate_stagnation_epochs=12
cascade_max_out_epochs=150
cascade_min_out_epochs=50
cascade_max_cand_epochs=150
cascade_min_cand_epochs=50
cascade_num_candidate_groups=2
bit_fail_limit=3.49999994039535522461e-01
cascade_candidate_limit=1.00000000000000000000e+03
cascade_weight_multiplier=4.00000005960464477539e-01
cascade_activation_functions_count=10
cascade_activation_functions=3 5 7 8 10 11 14 15 16 17 
cascade_activation_steepnesses_count=4
cascade_activation_steepnesses=2.50000000000000000000e-01 5.00000000000000000000e-01 7.50000000000000000000e-01 1.00000000000000000000e+00 
layer_sizes=4 33 8 
scale_included=0
neurons (num_inputs, activation_function, activation_steepness)=(0, 0, 0.00000000000000000000e+00) (0, 0, 0.00000000000000000000e+00) (0, 0, 0.00000000000000000000e+00) (0, 0, 0.00000000000000000000e+00) (4, 5, 5.00000000000000000000e-01) (4, 5, 5.00000000000000000000e-01) (4, 5, 5.00000000000000000000e-01) (4, 5, 5.00000000000000000000e-01) (4, 5, 5.00000000000000000000e-01) (4, 5, 5.00000000000000000000e-01) (4, 5, 5.00000000000000000000e-01) (4, 5, 5.00000000000000000000e-01) (4, 5, 5.00000000000000000000e-01) (4, 5, 5.00000000000000000000e-01) (4, 5, 5.00000000000000000000e-01) (4, 5, 5.00000000000000000000e-01) (4, 5, 5.00000000000000000000e-01) (4, 5, 5.00000000000000000000e-01) (4, 5, 5.00000000000000000000e-01) (4, 5, 5.00000000000000000000e-01) (4, 5, 5.00000000000000000000e-01) (4, 5, 5.00000000000000000000e-01) (4, 5, 5.00000000000000000000e-01) (4, 5, 5.00000000000000000000e-01) (4, 5, 5.00000000000000000000e-01) (4, 5, 5.00000000000000000000e-01) (4, 5, 5.00000000000000000000e-01) (4, 5, 5.00000000000000000000e-01) (4, 5, 5.00000000000000000000e-01) (4, 5, 5.00000000000000000000e-01) (4, 5, 5.00000000000000000000e-01) (4, 5, 5.00000000000000000000e-01) (4, 5, 5.00000000000000000000e-01) (4, 5, 5.00000000000000000000e-01) (4, 5, 5.00000000000000000000e-01) (4, 5, 5.00000000000000000000e-01) (0, 5, 0.00000000000000000000e+00) (33, 3, 5.00000000000000000000e-01) (33, 3, 5.00000000000000000000e-01) (33, 3, 5.00000000000000000000e-01) (33, 3, 5.00000000000000000000e-01) (33, 3, 5.00000000000000000000e-01) (33, 3, 5.00000000000000000000e-01) (33, 3, 5.00000000000000000000e-01) (0, 3, 0.00000000000000000000e+00) 
connections (connected_to_neuron, weight)=(0, 3.96492881774902343750e+01) (1, 9.61036324501037597656e-01) (2, 4.54191803932189941406e-01) (3, -5.53764152526855468750e+01) (0, 2.76791453361511230469e-01) (1, 5.25298595428466796875e-01) (2, 1.88593995571136474609e+00) (3, 1.45722419023513793945e-01) (0, -1.38621032238006591797e-01) (1, 3.29236835241317749023e-01) (2, 1.13771831989288330078e+00) (3, -9.59868803620338439941e-02) (0, 1.61566317081451416016e-01) (1, 7.68155336380004882812e-01) (2, -1.71052246093750000000e+01) (3, 2.92645037174224853516e-01) (0, 3.34915232658386230469e+00) (1, 1.59487223625183105469e+00) (2, 1.56008350849151611328e+00) (3, -9.07505493164062500000e+01) (0, -3.78564417362213134766e-01) (1, 8.46960663795471191406e-01) (2, 7.93894767761230468750e-01) (3, 3.96352916955947875977e-01) (0, 1.23130559921264648438e-01) (1, 6.26686334609985351562e-01) (2, -2.20136117935180664062e+00) (3, 1.40772730112075805664e-01) (0, -9.22253951430320739746e-02) (1, 8.95327508449554443359e-01) (2, 6.39252603054046630859e-01) (3, 2.82340109348297119141e-01) (0, 1.94839105010032653809e-01) (1, -3.38085055351257324219e-01) (2, 1.92979454994201660156e-01) (3, 2.57855921983718872070e-01) (0, 2.08860319107770919800e-02) (1, -9.89955961704254150391e-01) (2, 4.18027549982070922852e-01) (3, -5.16509354114532470703e-01) (0, -1.16099596023559570312e-01) (1, -2.25134387612342834473e-01) (2, -3.05854398757219314575e-02) (3, 3.58660101890563964844e-01) (0, 1.28534331917762756348e-01) (1, -6.82994604110717773438e-01) (2, -1.50583529472351074219e+00) (3, 2.84774273633956909180e-01) (0, 3.13787534832954406738e-02) (1, -2.52118468284606933594e-01) (2, 2.57537931203842163086e-01) (3, 5.48313915729522705078e-01) (0, 7.44619989395141601562e+00) (1, 9.25528883934020996094e-01) (2, 1.94648003578186035156e+00) (3, -1.74016437530517578125e+01) (0, 1.65857963562011718750e+01) (1, 1.72092895507812500000e+01) (2, 8.82691264152526855469e-01) (3, -9.30967559814453125000e+01) (0, -3.98775823414325714111e-02) (1, 3.59878987073898315430e-02) (2, 2.09426879882812500000e+00) (3, 4.70239967107772827148e-01) (0, 2.41326883435249328613e-01) (1, 9.84190180897712707520e-02) (2, 1.14735460281372070312e+00) (3, -2.28510588407516479492e-01) (0, -3.03382892161607742310e-02) (1, -1.67203977704048156738e-01) (2, -4.96479362249374389648e-01) (3, 3.32863003015518188477e-01) (0, 7.57380580902099609375e+00) (1, 3.12618565559387207031e+00) (2, 3.52129888534545898438e+00) (3, -2.46359806060791015625e+01) (0, 3.07826459407806396484e-01) (1, 8.70845735073089599609e-01) (2, 1.45703589916229248047e+00) (3, -5.80493882298469543457e-02) (0, 3.42400372028350830078e-01) (1, -1.18270277976989746094e-01) (2, 8.39835524559020996094e-01) (3, -4.19131554663181304932e-02) (0, 3.95399659872055053711e-01) (1, 3.50020676851272583008e-01) (2, 9.99730408191680908203e-01) (3, 1.61895364522933959961e-01) (0, -8.12305808067321777344e-02) (1, -1.11313390731811523438e+00) (2, -5.29736995697021484375e+00) (3, 2.22607135772705078125e+00) (0, 5.81081271171569824219e-01) (1, 1.68831419944763183594e+00) (2, 6.73274517059326171875e-01) (3, -8.55930709838867187500e+00) (0, -1.17405606433749198914e-02) (1, 5.02355515956878662109e-01) (2, 4.57743912935256958008e-01) (3, -1.37725010514259338379e-01) (0, 6.85340285301208496094e-01) (1, 3.26621341705322265625e+00) (2, 3.72923278808593750000e+00) (3, -3.98967056274414062500e+01) (0, 7.12083950638771057129e-02) (1, 6.24556720256805419922e-01) (2, 8.48700463771820068359e-01) (3, 1.79963842034339904785e-01) (0, -2.95745674520730972290e-02) (1, -1.29404261708259582520e-01) (2, -6.44027709960937500000e-01) (3, 3.77189517021179199219e-01) (0, 7.31693124771118164062e+00) (1, 1.00233542919158935547e+00) (2, 9.24757575988769531250e+00) (3, -5.53212623596191406250e+01) (0, -1.31915062665939331055e-01) (1, -4.22898054122924804688e-01) (2, 1.19928508996963500977e-01) (3, -1.57550036907196044922e-01) (0, 1.13552652299404144287e-01) (1, 2.60142534971237182617e-01) (2, -3.98796463012695312500e+00) (3, 3.10158848762512207031e-01) (0, -1.02713212370872497559e-01) (1, 9.01414379477500915527e-02) (2, 1.07529036700725555420e-01) (3, 3.58458429574966430664e-01) (4, 3.23410600423812866211e-01) (5, 1.49891722202301025391e+00) (6, 7.88463056087493896484e-01) (7, 1.08442187309265136719e+00) (8, 2.86548316478729248047e-01) (9, 1.14206278324127197266e+00) (10, -8.61657485365867614746e-02) (11, -1.53757965564727783203e+00) (12, 6.47341728210449218750e-01) (13, 7.68546104431152343750e-01) (14, -6.36651888489723205566e-02) (15, -9.26082015037536621094e-01) (16, 1.63888216018676757812e-01) (17, 3.72865736484527587891e-01) (18, 4.49180841445922851562e-01) (19, -1.52719169855117797852e-01) (20, 1.24670958518981933594e+00) (21, 7.80848860740661621094e-01) (22, 2.42424905300140380859e-01) (23, -2.85476237535476684570e-01) (24, 5.77742874622344970703e-01) (25, -3.34417313337326049805e-01) (26, -7.32896924018859863281e-02) (27, 4.19293105602264404297e-01) (28, -3.72321575880050659180e-01) (29, 2.90195375680923461914e-01) (30, -2.72604405879974365234e-01) (31, 6.14862442016601562500e-01) (32, 2.77404248714447021484e-01) (33, -1.88538860529661178589e-02) (34, 1.36928260326385498047e+00) (35, -4.20976996421813964844e-01) (36, -1.44434615969657897949e-01) (4, 4.22414630651473999023e-01) (5, 1.57795935869216918945e-01) (6, 7.71780848503112792969e-01) (7, -4.13130187988281250000e+00) (8, 1.05732753872871398926e-01) (9, 3.78113865852355957031e+00) (10, 6.29274025559425354004e-02) (11, 4.22508907318115234375e+00) (12, -1.45922889932990074158e-02) (13, 2.17489153146743774414e-01) (14, 1.19934901595115661621e-02) (15, 1.19110691547393798828e+00) (16, -4.09104004502296447754e-02) (17, 4.23270970582962036133e-01) (18, 7.07214698195457458496e-02) (19, 6.88986703753471374512e-02) (20, 3.74484956264495849609e-01) (21, -4.67776119709014892578e-01) (22, 4.20673340559005737305e-01) (23, 6.95812821388244628906e-01) (24, -1.16698610782623291016e+00) (25, 2.24943503737449645996e-01) (26, -1.99791714549064636230e-01) (27, 3.62423449754714965820e-01) (28, 1.66402891278266906738e-01) (29, 1.45168215036392211914e-01) (30, 3.95644569396972656250e+00) (31, 1.37242710590362548828e+00) (32, 7.97097206115722656250e-01) (33, 6.11515268683433532715e-02) (34, -1.18923485279083251953e-01) (35, 3.19675862789154052734e-01) (36, -1.99434030801057815552e-02) (4, 6.01758003234863281250e-01) (5, -4.11581325531005859375e+00) (6, 9.97043430805206298828e-01) (7, -1.61246821284294128418e-01) (8, 5.89787244796752929688e-01) (9, -2.05692744255065917969e+00) (10, -1.55174806714057922363e-01) (11, -3.60268473625183105469e-01) (12, 2.08302540704607963562e-03) (13, -3.61115261912345886230e-02) (14, -8.41932892799377441406e-02) (15, 4.21493321657180786133e-01) (16, 8.21082107722759246826e-03) (17, 5.26056289672851562500e-01) (18, 5.49022257328033447266e-01) (19, 6.19038641452789306641e-02) (20, -1.69867709279060363770e-01) (21, -6.39148771762847900391e-01) (22, 6.31275892257690429688e-01) (23, -3.75238321721553802490e-02) (24, -4.77253556251525878906e-01) (25, -9.46615189313888549805e-02) (26, -3.98124575614929199219e+00) (27, 4.44946557283401489258e-01) (28, -1.72147512435913085938e-01) (29, 5.35999715328216552734e-01) (30, -1.67923018336296081543e-01) (31, 2.37798556685447692871e-01) (32, 5.97222089767456054688e-01) (33, -9.48398560285568237305e-02) (34, -5.94954729080200195312e-01) (35, -8.06623175740242004395e-02) (36, -2.50909566879272460938e-01) (4, 5.50571620464324951172e-01) (5, -4.45524901151657104492e-01) (6, -2.03590318560600280762e-02) (7, 3.68156290054321289062e+00) (8, 7.09810554981231689453e-01) (9, 1.37818074226379394531e+00) (10, -1.36739373207092285156e+00) (11, 1.35318532586097717285e-01) (12, -2.21442177891731262207e-01) (13, 1.36372983455657958984e-01) (14, 1.70042756944894790649e-02) (15, -1.10625016689300537109e+00) (16, -5.97373172640800476074e-02) (17, 5.00023424625396728516e-01) (18, 5.14555335044860839844e-01) (19, 4.03292083740234375000e+00) (20, -4.73461538553237915039e-01) (21, 1.91722661256790161133e-01) (22, 5.68049132823944091797e-01) (23, -2.65266746282577514648e-01) (24, -1.27137213945388793945e-01) (25, -1.30641773343086242676e-01) (26, 8.46300721168518066406e-01) (27, 6.00203692913055419922e-01) (28, 1.77739933133125305176e-01) (29, 6.13651752471923828125e-01) (30, 1.45791633985936641693e-03) (31, 2.28090599179267883301e-01) (32, 5.14486014842987060547e-01) (33, 1.03018563240766525269e-02) (34, 1.28282523155212402344e+00) (35, -2.59212493896484375000e-01) (36, -2.87333160638809204102e-01) (4, 3.77742409706115722656e-01) (5, -1.37911990284919738770e-01) (6, -9.39799472689628601074e-02) (7, 3.57140421867370605469e-01) (8, 4.96382147073745727539e-01) (9, -1.97824597358703613281e+00) (10, 9.30979177355766296387e-02) (11, -6.30887672305107116699e-02) (12, 2.50845491886138916016e-01) (13, -7.56630778312683105469e-01) (14, -9.83789786696434020996e-02) (15, 1.06089019775390625000e+00) (16, 4.54415291547775268555e-01) (17, 4.34709072113037109375e-01) (18, 3.88085424900054931641e-01) (19, 1.58557549118995666504e-01) (20, -1.10258080065250396729e-01) (21, 4.64167386293411254883e-01) (22, 4.75186705589294433594e-01) (23, -1.26151829957962036133e-01) (24, 4.05978083610534667969e-01) (25, -1.23541869223117828369e-01) (26, 2.60796099901199340820e-01) (27, 4.72130715847015380859e-01) (28, -1.06724500656127929688e-01) (29, 3.88636916875839233398e-01) (30, -1.00572176277637481689e-01) (31, 3.94103080034255981445e-01) (32, 3.84156495332717895508e-01) (33, -3.66790235042572021484e-01) (34, -5.98881952464580535889e-02) (35, -1.48959890007972717285e-01) (36, -6.13448768854141235352e-02) (4, 3.16893070936203002930e-01) (5, -6.29827603697776794434e-02) (6, -1.41000986099243164062e+00) (7, -8.67980360984802246094e-01) (8, 3.99692386388778686523e-01) (9, 1.60130369663238525391e+00) (10, 3.43115359544754028320e-01) (11, -5.33659011125564575195e-02) (12, -1.10020071268081665039e-01) (13, 1.47584136575460433960e-02) (14, -2.13518384844064712524e-02) (15, 1.45526456832885742188e+00) (16, 1.72428056597709655762e-01) (17, 4.07223403453826904297e-01) (18, 5.16445577144622802734e-01) (19, 1.16835169494152069092e-01) (20, 9.79171991348266601562e-02) (21, 3.56490075588226318359e-01) (22, 4.62400496006011962891e-01) (23, -8.18165168166160583496e-02) (24, -2.28750128298997879028e-02) (25, -4.53008674085140228271e-02) (26, 2.45918244123458862305e-01) (27, 3.94496262073516845703e-01) (28, -6.89082872122526168823e-03) (29, 5.02234995365142822266e-01) (30, -3.21757085621356964111e-02) (31, 3.41985285282135009766e-01) (32, 3.66452097892761230469e-01) (33, -6.95602670311927795410e-02) (34, -1.59860365092754364014e-02) (35, 1.79846584796905517578e-01) (36, 4.61995378136634826660e-02) (4, 2.88272202014923095703e-01) (5, -4.18081805109977722168e-02) (6, 3.65502201020717620850e-02) (7, -6.14504098892211914062e-01) (8, 4.31151747703552246094e-01) (9, -2.56014853715896606445e-01) (10, 5.10647594928741455078e-01) (11, -1.01779334247112274170e-01) (12, -6.97490155696868896484e-01) (13, 4.11178395152091979980e-02) (14, -1.56326711177825927734e-01) (15, 1.67153930664062500000e+00) (16, -1.69538110494613647461e-01) (17, 2.18571752309799194336e-01) (18, 3.54861825704574584961e-01) (19, 1.51967895030975341797e+00) (20, 1.78193613886833190918e-01) (21, 5.89078783988952636719e-01) (22, 2.02806830406188964844e-01) (23, 4.51171537861227989197e-04) (24, 5.02510011196136474609e-01) (25, 1.54492175206542015076e-02) (26, 6.63587212562561035156e-01) (27, 4.92767095565795898438e-01) (28, -4.28330861032009124756e-02) (29, 4.19794172048568725586e-01) (30, -3.09516817331314086914e-01) (31, 6.72735631465911865234e-01) (32, 3.20055484771728515625e-01) (33, -1.47023528814315795898e-01) (34, 1.36239498853683471680e-01) (35, 1.64604812860488891602e-01) (36, 2.79852226376533508301e-02) 
