FANN_FLO_2.1
num_layers=3
learning_rate=0.700000
connection_rate=1.000000
network_type=0
learning_momentum=0.400000
training_algorithm=0
train_error_function=1
train_stop_function=0
cascade_output_change_fraction=0.010000
quickprop_decay=-0.000100
quickprop_mu=1.750000
rprop_increase_factor=1.200000
rprop_decrease_factor=0.500000
rprop_delta_min=0.000000
rprop_delta_max=50.000000
rprop_delta_zero=0.100000
cascade_output_stagnation_epochs=12
cascade_candidate_change_fraction=0.010000
cascade_candidate_stagnation_epochs=12
cascade_max_out_epochs=150
cascade_min_out_epochs=50
cascade_max_cand_epochs=150
cascade_min_cand_epochs=50
cascade_num_candidate_groups=2
bit_fail_limit=3.49999994039535522461e-01
cascade_candidate_limit=1.00000000000000000000e+03
cascade_weight_multiplier=4.00000005960464477539e-01
cascade_activation_functions_count=10
cascade_activation_functions=3 5 7 8 10 11 14 15 16 17 
cascade_activation_steepnesses_count=4
cascade_activation_steepnesses=2.50000000000000000000e-01 5.00000000000000000000e-01 7.50000000000000000000e-01 1.00000000000000000000e+00 
layer_sizes=4 33 8 
scale_included=0
neurons (num_inputs, activation_function, activation_steepness)=(0, 0, 0.00000000000000000000e+00) (0, 0, 0.00000000000000000000e+00) (0, 0, 0.00000000000000000000e+00) (0, 0, 0.00000000000000000000e+00) (4, 4, 5.00000000000000000000e-01) (4, 4, 5.00000000000000000000e-01) (4, 4, 5.00000000000000000000e-01) (4, 4, 5.00000000000000000000e-01) (4, 4, 5.00000000000000000000e-01) (4, 4, 5.00000000000000000000e-01) (4, 4, 5.00000000000000000000e-01) (4, 4, 5.00000000000000000000e-01) (4, 4, 5.00000000000000000000e-01) (4, 4, 5.00000000000000000000e-01) (4, 4, 5.00000000000000000000e-01) (4, 4, 5.00000000000000000000e-01) (4, 4, 5.00000000000000000000e-01) (4, 4, 5.00000000000000000000e-01) (4, 4, 5.00000000000000000000e-01) (4, 4, 5.00000000000000000000e-01) (4, 4, 5.00000000000000000000e-01) (4, 4, 5.00000000000000000000e-01) (4, 4, 5.00000000000000000000e-01) (4, 4, 5.00000000000000000000e-01) (4, 4, 5.00000000000000000000e-01) (4, 4, 5.00000000000000000000e-01) (4, 4, 5.00000000000000000000e-01) (4, 4, 5.00000000000000000000e-01) (4, 4, 5.00000000000000000000e-01) (4, 4, 5.00000000000000000000e-01) (4, 4, 5.00000000000000000000e-01) (4, 4, 5.00000000000000000000e-01) (4, 4, 5.00000000000000000000e-01) (4, 4, 5.00000000000000000000e-01) (4, 4, 5.00000000000000000000e-01) (4, 4, 5.00000000000000000000e-01) (0, 0, 0.00000000000000000000e+00) (33, 4, 5.00000000000000000000e-01) (33, 4, 5.00000000000000000000e-01) (33, 4, 5.00000000000000000000e-01) (33, 4, 5.00000000000000000000e-01) (33, 4, 5.00000000000000000000e-01) (33, 4, 5.00000000000000000000e-01) (33, 4, 5.00000000000000000000e-01) (0, 0, 0.00000000000000000000e+00) 
connections (connected_to_neuron, weight)=(0, 5.52741408348083496094e-01) (1, 2.74216026067733764648e-01) (2, 2.83848375082015991211e-01) (3, -2.77659632265567779541e-02) (0, 4.85894322395324707031e-01) (1, 1.43646582961082458496e-01) (2, -9.54332947731018066406e-03) (3, -9.68251191079616546631e-03) (0, 4.63313013315200805664e-01) (1, 7.34193176031112670898e-02) (2, 1.87007516622543334961e-01) (3, -1.18982695043087005615e-01) (0, -1.01442068815231323242e-01) (1, 3.60025495290756225586e-01) (2, 4.75899726152420043945e-01) (3, -2.95489951968193054199e-02) (0, 4.61627811193466186523e-01) (1, 9.35948174446821212769e-03) (2, 1.57597079873085021973e-01) (3, -3.34646850824356079102e-02) (0, 1.43735229969024658203e-01) (1, 3.67978185415267944336e-01) (2, -5.79109966754913330078e-01) (3, 6.77950754761695861816e-02) (0, 3.44594150781631469727e-01) (1, 3.14840048551559448242e-01) (2, 7.01618269085884094238e-02) (3, -5.98261095583438873291e-02) (0, 2.71782845258712768555e-01) (1, 4.02103930711746215820e-01) (2, 1.07489610090851783752e-02) (3, -4.27166856825351715088e-02) (0, 3.11017751693725585938e-01) (1, 2.48157903552055358887e-01) (2, 1.13111890852451324463e-01) (3, -7.39915594458580017090e-02) (0, 2.89328247308731079102e-01) (1, 4.72093999385833740234e-01) (2, -1.73947677016258239746e-01) (3, -4.59116790443658828735e-03) (0, 9.92500856518745422363e-02) (1, 7.31168866157531738281e-01) (2, 3.63020338118076324463e-02) (3, -1.33303984999656677246e-01) (0, -6.11643016338348388672e-01) (1, -8.16972479224205017090e-02) (2, 1.45606651902198791504e-01) (3, 2.58889775723218917847e-02) (0, 3.00906538963317871094e-01) (1, 1.02069728076457977295e-01) (2, 2.00487077236175537109e-01) (3, -2.07182113081216812134e-02) (0, 5.13619303703308105469e-01) (1, 6.17305003106594085693e-02) (2, 1.83741196990013122559e-01) (3, 5.20706782117486000061e-03) (0, 5.07547199726104736328e-01) (1, 6.76319748163223266602e-03) (2, 4.31143976747989654541e-02) (3, 2.78949309140443801880e-02) (0, -5.80009162425994873047e-01) (1, -5.18984258174896240234e-01) (2, 4.35778051614761352539e-02) (3, 8.94587039947509765625e-02) (0, 4.76671785116195678711e-01) (1, 1.31666272878646850586e-01) (2, 9.70418453216552734375e-02) (3, 3.13450396060943603516e-02) (0, 3.24634969234466552734e-01) (1, 5.09042739868164062500e-01) (2, -7.22650825977325439453e-01) (3, -1.41055174171924591064e-02) (0, 4.82435047626495361328e-01) (1, 2.39922031760215759277e-01) (2, 1.67303547263145446777e-01) (3, -2.11339239031076431274e-02) (0, 9.62129607796669006348e-03) (1, 1.05071313679218292236e-01) (2, 4.96849238872528076172e-01) (3, -6.73271492123603820801e-02) (0, 1.42415300011634826660e-01) (1, 1.31171077489852905273e-01) (2, 3.74778062105178833008e-01) (3, 9.19960159808397293091e-03) (0, 4.03178870677947998047e-01) (1, 6.29087388515472412109e-02) (2, 2.90627539157867431641e-01) (3, -7.43638798594474792480e-02) (0, 3.80184561014175415039e-01) (1, 2.36885860562324523926e-01) (2, -3.57906706631183624268e-02) (3, -2.45139822363853454590e-02) (0, -2.60151296854019165039e-01) (1, 3.19902122020721435547e-01) (2, 7.36156225204467773438e-01) (3, -1.09650485217571258545e-01) (0, 3.93280744552612304688e-01) (1, 2.20283150672912597656e-01) (2, 4.79008182883262634277e-02) (3, 1.66458282619714736938e-02) (0, 5.63524484634399414062e-01) (1, 1.09116718173027038574e-01) (2, 1.45035132765769958496e-01) (3, -9.72798094153404235840e-03) (0, 6.23263359069824218750e-01) (1, -7.20800086855888366699e-02) (2, 6.45544081926345825195e-02) (3, -9.12338420748710632324e-02) (0, 5.03330111503601074219e-01) (1, 1.27198144793510437012e-01) (2, 1.77772715687751770020e-01) (3, -1.23574905097484588623e-01) (0, -5.61692178249359130859e-01) (1, -2.28953018784523010254e-01) (2, 5.99446184933185577393e-02) (3, 1.73669353127479553223e-01) (0, -5.84545254707336425781e-01) (1, -3.48771750926971435547e-01) (2, -2.07445994019508361816e-02) (3, 1.60509347915649414062e-01) (0, 5.20078122615814208984e-01) (1, 2.30455666780471801758e-01) (2, 1.89722180366516113281e-01) (3, 1.44681558012962341309e-02) (0, 6.19409620761871337891e-01) (1, 1.24697834253311157227e-01) (2, 1.64019599556922912598e-01) (3, -9.59256142377853393555e-02) (4, -1.23551758006215095520e-02) (5, -2.23022118210792541504e-01) (6, -2.39045843482017517090e-01) (7, -8.79092365503311157227e-02) (8, -2.21861854195594787598e-01) (9, -7.75799930095672607422e-01) (10, -1.17451712489128112793e-01) (11, -1.20240703225135803223e-01) (12, -1.94685176014900207520e-01) (13, -5.16201138496398925781e-01) (14, -3.26203554868698120117e-01) (15, -6.01106524467468261719e-01) (16, -2.60747283697128295898e-01) (17, -1.35982170701026916504e-01) (18, -2.92306095361709594727e-01) (19, -5.43920457363128662109e-01) (20, -1.55047222971916198730e-01) (21, -7.74148046970367431641e-01) (22, -1.46786615252494812012e-01) (23, -2.16345801949501037598e-01) (24, -1.55825346708297729492e-01) (25, -1.91585645079612731934e-01) (26, -2.29862734675407409668e-01) (27, -1.00998714566230773926e-01) (28, -2.13967606425285339355e-01) (29, -1.22229658067226409912e-01) (30, -3.61765503883361816406e-01) (31, -1.33777469396591186523e-01) (32, -9.02923703193664550781e-01) (33, -1.20649385452270507812e+00) (34, -4.41421307623386383057e-02) (35, -6.44168406724929809570e-02) (36, -1.38417923450469970703e+00) (4, -2.91489839553833007812e-01) (5, -2.71944880485534667969e-01) (6, -1.22389756143093109131e-01) (7, 2.70092874765396118164e-01) (8, -8.20143222808837890625e-02) (9, -2.57983237504959106445e-01) (10, -8.59941542148590087891e-02) (11, -1.21964074671268463135e-01) (12, -5.46687543392181396484e-02) (13, -3.50938022136688232422e-01) (14, -4.03434514999389648438e-01) (15, 1.27756822109222412109e+00) (16, -3.05752510030288249254e-05) (17, -4.18156720697879791260e-02) (18, -1.11908197402954101562e-01) (19, 1.39783453941345214844e+00) (20, -1.03374645113945007324e-01) (21, -2.02125474810600280762e-01) (22, -2.01543360948562622070e-01) (23, 1.83173879981040954590e-01) (24, 1.80765345692634582520e-01) (25, -2.37667392939329147339e-02) (26, -6.62002041935920715332e-02) (27, 5.42062997817993164062e-01) (28, -1.16845346987247467041e-01) (29, -2.14869618415832519531e-01) (30, -3.25553923845291137695e-01) (31, -2.04478114843368530273e-01) (32, 1.03603482246398925781e+00) (33, 9.03960764408111572266e-01) (34, -1.59620031714439392090e-01) (35, -2.91313916444778442383e-01) (36, 8.82587075233459472656e-01) (4, -6.11463129520416259766e-01) (5, -2.04352363944053649902e-01) (6, -2.12120473384857177734e-01) (7, -3.38782757520675659180e-01) (8, -2.06454351544380187988e-01) (9, -7.98718035221099853516e-01) (10, -4.08685095608234405518e-02) (11, -8.73112380504608154297e-02) (12, -1.63780346512794494629e-01) (13, -6.52497887611389160156e-01) (14, -3.85391414165496826172e-01) (15, -7.68904924392700195312e-01) (16, -3.39199811220169067383e-01) (17, -2.21810907125473022461e-01) (18, -1.46470800042152404785e-01) (19, -4.01202380657196044922e-01) (20, -1.65598750114440917969e-01) (21, -6.23013257980346679688e-01) (22, -3.02562694996595382690e-02) (23, -3.10760051012039184570e-01) (24, -2.04374760389328002930e-01) (25, -2.62271285057067871094e-01) (26, -1.85550853610038757324e-01) (27, -4.95938330888748168945e-01) (28, -1.66656717658042907715e-01) (29, -1.99585378170013427734e-01) (30, -2.63192117214202880859e-01) (31, -1.83238774538040161133e-01) (32, -1.05258190631866455078e+00) (33, -9.14074420928955078125e-01) (34, -1.42155289649963378906e-01) (35, -2.28347048163414001465e-01) (36, -9.03931736946105957031e-01) (4, -4.29452151060104370117e-01) (5, -2.02852025628089904785e-01) (6, -3.79262924194335937500e-01) (7, -3.31283599138259887695e-01) (8, -2.26045787334442138672e-01) (9, -7.35356330871582031250e-01) (10, -9.86856743693351745605e-02) (11, -2.56924718618392944336e-01) (12, -1.54423847794532775879e-01) (13, -4.12919521331787109375e-01) (14, -7.77256608009338378906e-01) (15, -6.46765351295471191406e-01) (16, -2.14804366230964660645e-01) (17, -1.64467453956604003906e-01) (18, -2.55570083856582641602e-01) (19, -4.69783782958984375000e-01) (20, -1.08277991414070129395e-01) (21, -8.41795802116394042969e-01) (22, -2.74856299161911010742e-01) (23, -3.45265805721282958984e-01) (24, -1.23217590153217315674e-01) (25, -2.24871888756752014160e-01) (26, -1.08258932828903198242e-01) (27, -5.24677157402038574219e-01) (28, -2.70068973302841186523e-01) (29, -2.18022361397743225098e-01) (30, -3.33461672067642211914e-01) (31, -2.46199354529380798340e-01) (32, -8.99529576301574707031e-01) (33, -9.99356985092163085938e-01) (34, -8.92861708998680114746e-02) (35, -8.77872332930564880371e-02) (36, -9.07464206218719482422e-01) (4, 1.67771428823471069336e-02) (5, -3.35055328905582427979e-02) (6, -1.87737420201301574707e-01) (7, -1.73201128840446472168e-01) (8, -4.39182221889495849609e-02) (9, -7.21463739871978759766e-01) (10, -7.07014277577400207520e-02) (11, -6.13188780844211578369e-02) (12, -5.83558604121208190918e-02) (13, -7.69343495368957519531e-01) (14, -1.20254695415496826172e+00) (15, -1.35281050205230712891e+00) (16, -1.89577102661132812500e-01) (17, -3.51763628423213958740e-02) (18, -4.27010767161846160889e-02) (19, -4.40790712833404541016e-01) (20, 4.15063016116619110107e-02) (21, -8.63164007663726806641e-01) (22, -3.04084688425064086914e-01) (23, -2.26878970861434936523e-01) (24, -8.63574668765068054199e-02) (25, -1.37952044606208801270e-01) (26, 7.14424299076199531555e-04) (27, -2.23671525716781616211e-01) (28, -3.33872959017753601074e-02) (29, -4.73757088184356689453e-02) (30, -1.56876444816589355469e-01) (31, -2.21781581640243530273e-02) (32, -8.81522119045257568359e-01) (33, -8.53015422821044921875e-01) (34, -1.24084830284118652344e-01) (35, -6.09805099666118621826e-02) (36, -9.01415586471557617188e-01) (4, -1.81625053286552429199e-01) (5, -7.91051983833312988281e-02) (6, -3.85546922683715820312e-01) (7, -1.14463046193122863770e-01) (8, -2.76141345500946044922e-01) (9, -4.95302706956863403320e-01) (10, -9.46788638830184936523e-02) (11, -6.14381879568099975586e-02) (12, -1.82633683085441589355e-01) (13, 1.09551981091499328613e-01) (14, 1.48952737450599670410e-01) (15, -5.86093544960021972656e-01) (16, -1.70176714658737182617e-01) (17, -1.53846204280853271484e-01) (18, -2.16053038835525512695e-01) (19, -1.27510273456573486328e+00) (20, -8.36208686232566833496e-02) (21, -4.87498044967651367188e-01) (22, -2.81533807516098022461e-01) (23, -2.41427212953567504883e-01) (24, -1.76545038819313049316e-01) (25, -3.51782947778701782227e-01) (26, -1.34219571948051452637e-01) (27, -4.55968707799911499023e-01) (28, -2.07001656293869018555e-01) (29, -1.77191272377967834473e-01) (30, -3.60388398170471191406e-01) (31, -2.42604196071624755859e-01) (32, -8.27682733535766601562e-01) (33, -9.14876699447631835938e-01) (34, -1.94388374686241149902e-01) (35, -2.91790276765823364258e-01) (36, -8.85873496532440185547e-01) (4, -4.65343028306961059570e-01) (5, -1.72310590744018554688e-01) (6, -3.67252290248870849609e-01) (7, -4.62368279695510864258e-01) (8, -3.47963809967041015625e-01) (9, 1.69576838612556457520e-01) (10, -1.38803005218505859375e-01) (11, -1.81874617934226989746e-01) (12, -2.93139308691024780273e-01) (13, 2.23412513732910156250e-01) (14, -6.10421225428581237793e-02) (15, -4.08225327730178833008e-01) (16, -1.97579234838485717773e-01) (17, -2.01518669724464416504e-01) (18, -2.37969651818275451660e-01) (19, -6.43018007278442382812e-01) (20, -2.36591190099716186523e-01) (21, 2.16777175664901733398e-01) (22, -2.68982112407684326172e-01) (23, -4.84826266765594482422e-01) (24, -2.85194665193557739258e-01) (25, -2.77222245931625366211e-01) (26, -1.25882565975189208984e-01) (27, -8.94662201404571533203e-01) (28, -3.12034070491790771484e-01) (29, -2.92526960372924804688e-01) (30, -3.01552712917327880859e-01) (31, -3.11411768198013305664e-01) (32, -7.04591274261474609375e-01) (33, -7.31208622455596923828e-01) (34, -2.94743746519088745117e-01) (35, -3.23296844959259033203e-01) (36, -8.14072430133819580078e-01) 
